digraph Tree {
node [shape=box, style="filled", color="black", fontname="helvetica"] ;
edge [fontname="helvetica"] ;
0 [label="Humidity3pm <= 73.5\nentropy = 0.818\nsamples = 2616\nvalue = [1951, 665]", fillcolor="#eeac7c"] ;
1 [label="Sunshine <= 8.05\nentropy = 0.677\nsamples = 2327\nvalue = [1911, 416]", fillcolor="#eb9c64"] ;
0 -> 1 [labeldistance=2.5, labelangle=45, headlabel="True"] ;
2 [label="Rainfall <= 1.9\nentropy = 0.91\nsamples = 972\nvalue = [656, 316]", fillcolor="#f2be98"] ;
1 -> 2 ;
3 [label="WindGustSpeed <= 56.5\nentropy = 0.829\nsamples = 704\nvalue = [520, 184]", fillcolor="#eeae7f"] ;
2 -> 3 ;
4 [label="entropy = 0.791\nsamples = 649\nvalue = [495, 154]", fillcolor="#eda877"] ;
3 -> 4 ;
5 [label="entropy = 0.994\nsamples = 55\nvalue = [25, 30]", fillcolor="#deeffb"] ;
3 -> 5 ;
6 [label="Sunshine <= 5.05\nentropy = 1.0\nsamples = 268\nvalue = [136, 132]", fillcolor="#fefbf9"] ;
2 -> 6 ;
7 [label="entropy = 0.956\nsamples = 151\nvalue = [57, 94]", fillcolor="#b1d8f5"] ;
6 -> 7 ;
8 [label="entropy = 0.91\nsamples = 117\nvalue = [79, 38]", fillcolor="#f2be98"] ;
6 -> 8 ;
9 [label="Sunshine <= 9.85\nentropy = 0.38\nsamples = 1355\nvalue = [1255, 100]", fillcolor="#e78b49"] ;
1 -> 9 ;
10 [label="MaxTemp <= 26.45\nentropy = 0.541\nsamples = 564\nvalue = [494, 70]", fillcolor="#e99355"] ;
9 -> 10 ;
11 [label="entropy = 0.419\nsamples = 460\nvalue = [421, 39]", fillcolor="#e78d4b"] ;
10 -> 11 ;
12 [label="entropy = 0.879\nsamples = 104\nvalue = [73, 31]", fillcolor="#f0b78d"] ;
10 -> 12 ;
13 [label="Humidity3pm <= 35.5\nentropy = 0.233\nsamples = 791\nvalue = [761, 30]", fillcolor="#e68641"] ;
9 -> 13 ;
14 [label="entropy = 0.045\nsamples = 201\nvalue = [200, 1]", fillcolor="#e5823a"] ;
13 -> 14 ;
15 [label="entropy = 0.283\nsamples = 590\nvalue = [561, 29]", fillcolor="#e68843"] ;
13 -> 15 ;
16 [label="Humidity3pm <= 79.5\nentropy = 0.58\nsamples = 289\nvalue = [40, 249]", fillcolor="#59ade9"] ;
0 -> 16 [labeldistance=2.5, labelangle=-45, headlabel="False"] ;
17 [label="WindSpeed9am <= 18.0\nentropy = 0.868\nsamples = 107\nvalue = [31, 76]", fillcolor="#8ac5f0"] ;
16 -> 17 ;
18 [label="WindDir9am_ESE <= 0.5\nentropy = 0.96\nsamples = 68\nvalue = [26, 42]", fillcolor="#b4daf5"] ;
17 -> 18 ;
19 [label="entropy = 0.981\nsamples = 62\nvalue = [26, 36]", fillcolor="#c8e4f8"] ;
18 -> 19 ;
20 [label="entropy = 0.0\nsamples = 6\nvalue = [0, 6]", fillcolor="#399de5"] ;
18 -> 20 ;
21 [label="Pressure9am <= 1024.0\nentropy = 0.552\nsamples = 39\nvalue = [5, 34]", fillcolor="#56abe9"] ;
17 -> 21 ;
22 [label="entropy = 0.0\nsamples = 27\nvalue = [0, 27]", fillcolor="#399de5"] ;
21 -> 22 ;
23 [label="entropy = 0.98\nsamples = 12\nvalue = [5, 7]", fillcolor="#c6e3f8"] ;
21 -> 23 ;
24 [label="WindDir3pm_E <= 0.5\nentropy = 0.284\nsamples = 182\nvalue = [9, 173]", fillcolor="#43a2e6"] ;
16 -> 24 ;
25 [label="WindSpeed3pm <= 3.0\nentropy = 0.168\nsamples = 161\nvalue = [4, 157]", fillcolor="#3e9fe6"] ;
24 -> 25 ;
26 [label="entropy = 0.863\nsamples = 7\nvalue = [2, 5]", fillcolor="#88c4ef"] ;
25 -> 26 ;
27 [label="entropy = 0.1\nsamples = 154\nvalue = [2, 152]", fillcolor="#3c9ee5"] ;
25 -> 27 ;
28 [label="Rainfall <= 2.1\nentropy = 0.792\nsamples = 21\nvalue = [5, 16]", fillcolor="#77bced"] ;
24 -> 28 ;
29 [label="entropy = 0.918\nsamples = 6\nvalue = [4, 2]", fillcolor="#f2c09c"] ;
28 -> 29 ;
30 [label="entropy = 0.353\nsamples = 15\nvalue = [1, 14]", fillcolor="#47a4e7"] ;
28 -> 30 ;
}